[{"weights": [[-2.2559919357299805, 0.08484742790460587, -0.05164268985390663], [0.23058463633060455, -1.3257170915603638, 0.055497169494628906], [-1.060241460800171, -0.2659519910812378, 0.1472354382276535], [-0.231674924492836, 0.8286325335502625, 0.0780462697148323], [1.4636008739471436, 0.42404431104660034, 0.07120932638645172], [1.2907371520996094, -0.8148633241653442, 0.04362940043210983], [-1.171950340270996, 0.8148959279060364, 0.7991399765014648], [-1.2154459953308105, -0.23440177738666534, 0.518916666507721], [0.9855570197105408, 0.18027222156524658, -0.06327857077121735], [0.30975645780563354, 0.7968496680259705, -0.7274835109710693], [0.7912442088127136, -0.8130050301551819, 0.04806043207645416], [-0.2228889912366867, 0.3718143403530121, 0.5141744613647461], [0.665011465549469, -0.4077213406562805, 0.6821272969245911], [-0.8691499829292297, -0.14120721817016602, -0.24650156497955322], [-1.047744631767273, 0.04237973690032959, -0.07980804890394211], [0.5673773884773254, -0.5106233358383179, -1.4177802801132202], [2.406872510910034, -0.0700688585639, -0.10850265622138977], [1.971316933631897, 0.38626688718795776, 0.6128091216087341], [1.1132863759994507, -0.5165882706642151, -0.42097362875938416], [1.801589846611023, 1.3952085971832275, 0.514572262763977]], "biases": [0.5081456303596497, 0.5366489291191101, 0.5598437786102295, -0.5863050818443298, -0.2399231493473053, -0.48241549730300903, 1.5631967782974243, -0.21741607785224915, -0.5179365873336792, -0.11214843392372131, -0.46383267641067505, -0.07298647612333298, -0.8138319849967957, 0.9360194802284241, 1.295013189315796, -0.11736954003572464, -0.4640044867992401, 0.023790555074810982, 0.4009423851966858, -1.1319313049316406], "activation": "elu"}, {"weights": [[0.0021148924715816975, 0.804427444934845, -0.17629846930503845, -0.11915578693151474, -0.08751680701971054, 0.2583668529987335, 0.26671892404556274, -0.09900179505348206, -0.03956688940525055, 0.1269691437482834, 0.12616008520126343, 0.2741706967353821, 0.03885568678379059, -0.18218325078487396, 0.17987555265426636, -0.24172981083393097, -0.1423286497592926, 0.2512456476688385, 0.2583046853542328, -0.028610004112124443], [-0.18066447973251343, -0.18280044198036194, 0.20835983753204346, -0.26005685329437256, 0.09454670548439026, 0.2578646242618561, 0.07178392261266708, -0.20357096195220947, -0.4041087329387665, -0.6372321248054504, -0.08125308156013489, -0.23520471155643463, -0.25716719031333923, 0.11767613142728806, 0.2671858072280884, 0.16585883498191833, 0.11843914538621902, -0.105994313955307, 0.11050855368375778, -0.13420291244983673], [-0.28363168239593506, -0.4532967805862427, -1.0246132612228394, 0.1737101525068283, 0.4181119501590729, 1.080732822418213, -0.7833181023597717, -0.07505516707897186, 1.2016029357910156, 0.41168999671936035, 1.3781347274780273, -0.09993691742420197, 1.789833426475525, -1.9035861492156982, -0.5976355671882629, 1.0243737697601318, 0.5330125093460083, 0.0022622826509177685, 0.07183921337127686, 0.8579246401786804], [-0.9762934446334839, -0.06241067126393318, -0.3953973352909088, -0.26686203479766846, 0.2921430468559265, 0.07134279608726501, -0.06375226378440857, 0.011784279718995094, 0.24585120379924774, -0.12819895148277283, 0.016455531120300293, 0.027463166043162346, 0.20516608655452728, -0.07012733072042465, -0.12588322162628174, 0.1525648981332779, 0.43808048963546753, 0.22262030839920044, 0.43231797218322754, 0.32837221026420593], [0.3207993805408478, 0.7048861980438232, 0.42986735701560974, -0.8408455848693848, -0.7118025422096252, -0.6839579939842224, -0.27904048562049866, 1.0865139961242676, -0.19993741810321808, 1.7884736061096191, -0.23999141156673431, -0.7655858993530273, 0.8442836999893188, 0.8321149945259094, -0.002493837382644415, 0.8002692461013794, -2.0484707355499268, -0.380840539932251, 0.4494909644126892, 0.21327470242977142], [-0.40184876322746277, -0.12190932780504227, -0.16644883155822754, 0.08309444040060043, -0.12220302224159241, 0.21930034458637238, -0.13553248345851898, -0.0911073237657547, 0.29900822043418884, -0.17564503848552704, 0.08903338015079498, -0.39002296328544617, -0.08464200794696808, -0.3643951117992401, -0.004841562360525131, 0.2402396947145462, 0.1715429425239563, -0.01686370000243187, -0.0385516956448555, 0.20998594164848328], [-0.6615821123123169, -0.366115003824234, -0.5314885377883911, 0.16493110358715057, 0.45356887578964233, 0.29018574953079224, 0.11870734393596649, -0.1604686975479126, 0.16622033715248108, 0.08068348467350006, 0.026981035247445107, -0.06129274517297745, 0.13337810337543488, -0.26936066150665283, -0.23179085552692413, -0.2675250470638275, 0.21745814383029938, 0.19317352771759033, 0.04335959255695343, 0.3874933421611786], [0.21153487265110016, -1.2150850296020508, 0.12241682410240173, 0.100186288356781, -0.27646705508232117, 0.1005178689956665, -0.05640067160129547, 0.04685771092772484, -0.25864675641059875, 0.008181266486644745, -0.17772875726222992, -0.4699302017688751, -0.5472202301025391, 0.3499425947666168, 0.07477731257677078, -0.1515544354915619, 0.26366615295410156, -0.2722959518432617, 0.017580179497599602, -0.1315469592809677], [-1.1190544366836548, -0.29101794958114624, -0.4029536247253418, -0.504051923751831, 0.2815687358379364, 0.18019859492778778, -0.0004641141858883202, -0.27464985847473145, 0.25899896025657654, -0.31388601660728455, 0.16123390197753906, -0.314536452293396, 0.26562029123306274, -0.12683354318141937, 0.01468009315431118, 0.04762604832649231, 0.6270391941070557, 0.2734862267971039, 0.11135895550251007, 0.25880569219589233], [0.4846232533454895, -0.6540727615356445, -0.5153235197067261, 0.7444285154342651, 0.2950592041015625, -0.5319584608078003, 0.07771381735801697, -0.08166719973087311, 0.41752615571022034, 1.0166457891464233, -0.4384711980819702, 0.5152169466018677, 0.26691126823425293, -0.2911864221096039, 0.09848219901323318, -0.048691097646951675, -0.1741100549697876, 0.20354187488555908, -0.2046823799610138, 0.5134416222572327], [-0.5381300449371338, -0.15001791715621948, -0.0178476944565773, -0.13687975704669952, -0.07558188587427139, 0.255400687456131, 0.014162786304950714, -0.07420333474874496, 0.09424910694360733, -0.17173373699188232, -0.15342377126216888, -0.20558834075927734, -0.05077114701271057, 0.03616001084446907, 0.011878516525030136, -0.04912838339805603, 0.23382620513439178, 0.10631486773490906, 0.24227915704250336, 0.21047799289226532], [-0.46220827102661133, -0.43482705950737, -0.01881927065551281, 0.058801256120204926, 0.06680156290531158, 0.20954178273677826, 0.05355200171470642, -0.23071874678134918, 0.17449280619621277, 0.03473171591758728, -0.15276962518692017, -0.057955678552389145, 0.20485283434391022, -0.12287864089012146, -0.22075782716274261, 0.1362888365983963, 0.2566809356212616, 0.1713179051876068, 0.030164632946252823, 0.32025620341300964], [0.04202134162187576, -0.6423692107200623, 0.17008273303508759, 0.10642783343791962, -0.04101597145199776, -0.11704663932323456, -0.015348713845014572, -0.09592294692993164, -0.19655700027942657, 0.1497998982667923, -0.07105951011180878, -0.13106681406497955, -0.1702784150838852, 0.051648758351802826, -0.11633609235286713, -0.10895770788192749, 0.2204238623380661, 0.02245659939944744, -0.36316007375717163, 0.07320800423622131], [-0.12101604044437408, -0.45984405279159546, -1.16840398311615, 0.480152428150177, 0.3847121000289917, 0.9636229276657104, -0.8353071212768555, -0.1643853485584259, 0.8128509521484375, 0.1563917100429535, 0.9820944666862488, -0.26422032713890076, 0.7605822682380676, -2.2745320796966553, -0.7873169779777527, 0.4527946710586548, 0.3697265684604645, 0.17795506119728088, 0.09321390092372894, 0.6038427948951721], [-0.5606639981269836, 0.16072200238704681, -1.2698163986206055, 0.051772188395261765, 0.7499780058860779, 0.5119950175285339, -0.10050032287836075, -0.6624264717102051, 1.2547595500946045, 0.281069815158844, 0.623879611492157, -0.009754308499395847, 0.45920175313949585, -0.7497410178184509, -0.05172663554549217, -0.003142901696264744, 0.8998535871505737, 0.5260604023933411, 0.3875744044780731, 0.2758265435695648], [-0.7828201651573181, -0.49589261412620544, -0.533729612827301, -0.1055319532752037, 0.38134393095970154, 0.2825148105621338, 0.06780208647251129, -0.16515643894672394, 0.23804596066474915, 0.036356884986162186, -0.03787032887339592, 0.1691143661737442, 0.11994068324565887, -0.5067088007926941, -0.06948792189359665, 0.03101738542318344, 0.26111137866973877, 0.06481247395277023, -0.10747699439525604, 0.38501298427581787], [0.6357488036155701, -1.06547212600708, 0.3847163915634155, -0.001401581452228129, -0.24068771302700043, -0.025840474292635918, -0.21928566694259644, 0.0764235407114029, -0.231943741440773, -0.5111795663833618, -0.2551475167274475, 0.12332266569137573, -0.30160313844680786, 0.19863006472587585, -0.047470398247241974, -0.2854735553264618, -0.1636650264263153, -0.33957719802856445, -0.23935359716415405, -0.07187359780073166], [-0.2157060205936432, -0.3437432050704956, 0.2066407948732376, -0.015015068463981152, -0.08809036016464233, 0.0438578836619854, -0.1450410634279251, 0.09214727580547333, -0.15132024884223938, -0.22509832680225372, 0.06209950894117355, -0.19181986153125763, -0.19971784949302673, 0.13667619228363037, -0.09300877153873444, -0.08571939915418625, 0.2978549897670746, -0.08360610157251358, 0.04849494993686676, 0.1213153526186943], [0.8499296307563782, 0.3990178406238556, 0.0017597059486433864, 0.6530796885490417, -0.3261251449584961, -0.9126947522163391, 0.2119045853614807, 0.059055205434560776, 0.04419998824596405, 0.944584310054779, -0.7898362874984741, 0.6202574968338013, -0.26915213465690613, 0.20994271337985992, -0.057191867381334305, -0.45978161692619324, -0.810507595539093, -0.239401176571846, -0.3964037299156189, 0.19722774624824524], [0.13479676842689514, 0.06535127758979797, 0.7396602034568787, -0.47757160663604736, -0.35112065076828003, -0.5535399913787842, 0.3471306562423706, -0.13770171999931335, -0.941922664642334, -0.37801939249038696, -0.77204829454422, 0.15423519909381866, -0.816790759563446, 0.8185056447982788, 0.47065412998199463, -0.43061140179634094, -0.09459587186574936, -0.2617824375629425, -0.1334623098373413, -0.25551551580429077]], "biases": [0.2083626091480255, -0.1362079381942749, -0.23434507846832275, 0.18025751411914825, -0.09056669473648071, -0.16926194727420807, -0.17571374773979187, -0.27142998576164246, 0.024378813803195953, 0.0895867869257927, -0.19860370457172394, 0.014489409513771534, -0.0177773367613554, -0.5332075357437134, -0.005553448107093573, 0.0977325513958931, -0.045828547328710556, 0.03337012231349945, 0.17563948035240173, 0.3362388014793396], "activation": "elu"}, {"weights": [[-0.38348329067230225, 0.4276076555252075, -1.0987173318862915, 0.290248304605484, -0.5425177812576294, 0.19076815247535706, 0.47437381744384766, 0.875912606716156, 0.7899389266967773, -0.5446140766143799, 0.24755556881427765, 0.22238458693027496, 0.07769383490085602, 1.1373059749603271, -0.6343183517456055, 0.36330145597457886, 0.6798950433731079, 0.06373491138219833, -0.19923533499240875, 0.4780638515949249]], "biases": [-0.34797582030296326], "activation": "none"}]